digraph Tree {
node [shape=box, style="filled, rounded", color="black", fontname="helvetica"] ;
edge [fontname="helvetica"] ;
0 [label="Start <= 8.5\ngini = 0.357\nsamples = 56\nvalue = [43, 13]\nclass = absent", fillcolor="#eda775"] ;
1 [label="Age <= 30.0\ngini = 0.473\nsamples = 13\nvalue = [5, 8]\nclass = present", fillcolor="#b5daf5"] ;
0 -> 1 [labeldistance=2.5, labelangle=45, headlabel="True"] ;
2 [label="gini = 0.0\nsamples = 3\nvalue = [3, 0]\nclass = absent", fillcolor="#e58139"] ;
1 -> 2 ;
3 [label="Age <= 130.5\ngini = 0.32\nsamples = 10\nvalue = [2, 8]\nclass = present", fillcolor="#6ab6ec"] ;
1 -> 3 ;
4 [label="gini = 0.0\nsamples = 7\nvalue = [0, 7]\nclass = present", fillcolor="#399de5"] ;
3 -> 4 ;
5 [label="Start <= 4.5\ngini = 0.444\nsamples = 3\nvalue = [2, 1]\nclass = absent", fillcolor="#f2c09c"] ;
3 -> 5 ;
6 [label="gini = 0.0\nsamples = 2\nvalue = [2, 0]\nclass = absent", fillcolor="#e58139"] ;
5 -> 6 ;
7 [label="gini = 0.0\nsamples = 1\nvalue = [0, 1]\nclass = present", fillcolor="#399de5"] ;
5 -> 7 ;
8 [label="Start <= 14.5\ngini = 0.206\nsamples = 43\nvalue = [38, 5]\nclass = absent", fillcolor="#e89253"] ;
0 -> 8 [labeldistance=2.5, labelangle=-45, headlabel="False"] ;
9 [label="Age <= 55.0\ngini = 0.32\nsamples = 25\nvalue = [20, 5]\nclass = absent", fillcolor="#eca06a"] ;
8 -> 9 ;
10 [label="gini = 0.0\nsamples = 11\nvalue = [11, 0]\nclass = absent", fillcolor="#e58139"] ;
9 -> 10 ;
11 [label="Age <= 96.5\ngini = 0.459\nsamples = 14\nvalue = [9, 5]\nclass = absent", fillcolor="#f3c7a7"] ;
9 -> 11 ;
12 [label="gini = 0.0\nsamples = 3\nvalue = [0, 3]\nclass = present", fillcolor="#399de5"] ;
11 -> 12 ;
13 [label="Age <= 135.0\ngini = 0.298\nsamples = 11\nvalue = [9, 2]\nclass = absent", fillcolor="#eb9d65"] ;
11 -> 13 ;
14 [label="gini = 0.0\nsamples = 5\nvalue = [5, 0]\nclass = absent", fillcolor="#e58139"] ;
13 -> 14 ;
15 [label="Age <= 158.0\ngini = 0.444\nsamples = 6\nvalue = [4, 2]\nclass = absent", fillcolor="#f2c09c"] ;
13 -> 15 ;
16 [label="gini = 0.0\nsamples = 2\nvalue = [0, 2]\nclass = present", fillcolor="#399de5"] ;
15 -> 16 ;
17 [label="gini = 0.0\nsamples = 4\nvalue = [4, 0]\nclass = absent", fillcolor="#e58139"] ;
15 -> 17 ;
18 [label="gini = 0.0\nsamples = 18\nvalue = [18, 0]\nclass = absent", fillcolor="#e58139"] ;
8 -> 18 ;
}